<?xml version="1.0"?>
<opencv_storage>
<cascade>
  <stageType>BOOST</stageType>
  <featureType>LBP</featureType>
  <height>48</height>
  <width>96</width>
  <stageParams>
    <boostType>GAB</boostType>
    <minHitRate>9.9500000476837158e-01</minHitRate>
    <maxFalseAlarm>5.0000000000000000e-01</maxFalseAlarm>
    <weightTrimRate>9.4999999999999996e-01</weightTrimRate>
    <maxDepth>1</maxDepth>
    <maxWeakCount>100</maxWeakCount></stageParams>
  <featureParams>
    <maxCatCount>256</maxCatCount>
    <featSize>1</featSize></featureParams>
  <stageNum>22</stageNum>
  <stages>
    <!-- stage 0 -->
    <_>
      <maxWeakCount>2</maxWeakCount>
      <stageThreshold>1.4656930230557919e-02</stageThreshold>
      <weakClassifiers>
        <_>
          <internalNodes>
            0 -1 37 -2063602435 2113928959 1509928703 -536899639
            2113838584 -1140850948 -17153 -268570627</internalNodes>
          <leafValues>
            -8.3783781528472900e-01 8.9552241563796997e-01</leafValues></_>
        <_>
          <internalNodes>
            0 -1 26 -788475120 -653197310 16777233 -721350655
            -2004844359 -1996488700 526475 -616529918</internalNodes>
          <leafValues>
            -8.7555104494094849e-01 8.5249477624893188e-01</leafValues></_></weakClassifiers></_>
    <!-- stage 1 -->
    <_>
      <maxWeakCount>2</maxWeakCount>
      <stageThreshold>1.3551220297813416e-02</stageThreshold>
      <weakClassifiers>
        <_>
          <internalNodes>
            0 -1 14 453042497 805322752 18833 1694515461 2147221311
            -3604689 2138536200 -550512853</internalNodes>
          <leafValues>
            -9.2558139562606812e-01 9.4326239824295044e-01</leafValues></_>
        <_>
          <internalNodes>
            0 -1 43 -804081319 -1073709056 16671 -2063532031 -2147450733
            -1608482656 268435599 388071555</internalNodes>
          <leafValues>
            -9.1321599483489990e-01 9.3913263082504272e-01</leafValues></_></weakClassifiers></_>
    <!-- stage 2 -->
    <_>
      <maxWeakCount>2</maxWeakCount>
      <stageThreshold>-9.9224515259265900e-02</stageThreshold>
      <weakClassifiers>
        <_>
          <internalNodes>
            0 -1 40 -1073102371 -1996324350 86363 1073840130 -1996453240
            -1365180384 8487353 -1463057957</internalNodes>
          <leafValues>
            -8.9397591352462769e-01 8.0471378564834595e-01</leafValues></_>
        <_>
          <internalNodes>
            0 -1 12 -661662309 -744945583 17875087 -805023723 -465249526
            -1442594750 264 51086219</internalNodes>
          <leafValues>
            -9.0393829345703125e-01 8.0536949634552002e-01</leafValues></_></weakClassifiers></_>
    <!-- stage 3 -->
    <_>
      <maxWeakCount>2</maxWeakCount>
      <stageThreshold>-1.3182345032691956e-01</stageThreshold>
      <weakClassifiers>
        <_>
          <internalNodes>
            0 -1 0 -669789985 -16560111 1476399325 -754610109
            -2008301566 -536805375 -2012704577 -115367789</internalNodes>
          <leafValues>
            -8.6255925893783569e-01 8.0000001192092896e-01</leafValues></_>
        <_>
          <internalNodes>
            0 -1 24 -83636001 -635760615 1091688669 -784216047
            -888422167 -2029801461 -1040135473 1174650891</internalNodes>
          <leafValues>
            -9.3182343244552612e-01 7.4008440971374512e-01</leafValues></_></weakClassifiers></_>
    <!-- stage 4 -->
    <_>
      <maxWeakCount>3</maxWeakCount>
      <stageThreshold>-8.7389647960662842e-01</stageThreshold>
      <weakClassifiers>
        <_>
          <internalNodes>
            0 -1 27 -16842753 -33558529 -69537 -1179649 -1996580613
            -268448034 -1114881 -539017190</internalNodes>
          <leafValues>
            -7.6754385232925415e-01 8.5156250000000000e-01</leafValues></_>
        <_>
          <internalNodes>
            0 -1 49 -768937763 -48840486 -2147449741 -788398079
            -1971224342 301989888 -1996453733 -234830965</internalNodes>
          <leafValues>
            -8.6058622598648071e-01 7.6989048719406128e-01</leafValues></_>
        <_>
          <internalNodes>
            0 -1 6 -648293381 -617545192 21655 898711709 134776970
            -905805824 8931530 1334689867</internalNodes>
          <leafValues>
            -8.6487275362014771e-01 7.8804600238800049e-01</leafValues></_></weakClassifiers></_>
    <!-- stage 5 -->
    <_>
      <maxWeakCount>2</maxWeakCount>
      <stageThreshold>-1.5712718665599823e-01</stageThreshold>
      <weakClassifiers>
        <_>
          <internalNodes>
            0 -1 2 1494585565 1364709384 -1857957803 -619636720
            1098940566 -745897851 -2147377117 -275408439</internalNodes>
          <leafValues>
            -8.5956418514251709e-01 7.4581938982009888e-01</leafValues></_>
        <_>
          <internalNodes>
            0 -1 46 -1055820272 -250576875 16781381 -183430656
            -1879015240 -629014527 -1987837784 -83107327</internalNodes>
          <leafValues>
            -9.0294659137725830e-01 7.2628319263458252e-01</leafValues></_></weakClassifiers></_>
    <!-- stage 6 -->
    <_>
      <maxWeakCount>2</maxWeakCount>
      <stageThreshold>-1.1077977716922760e-01</stageThreshold>
      <weakClassifiers>
        <_>
          <internalNodes>
            0 -1 10 -1085866085 -773591119 1744023527 -519983233
            1326362543 -1912606785 1204784559 -402681873</internalNodes>
          <leafValues>
            -7.9865771532058716e-01 8.4905660152435303e-01</leafValues></_>
        <_>
          <internalNodes>
            0 -1 47 -565190433 1091633153 4191 1359036511 -939521846
            196609 1224878219 1893934735</internalNodes>
          <leafValues>
            -9.2667043209075928e-01 6.8787795305252075e-01</leafValues></_></weakClassifiers></_>
    <!-- stage 7 -->
    <_>
      <maxWeakCount>3</maxWeakCount>
      <stageThreshold>-9.2366987466812134e-01</stageThreshold>
      <weakClassifiers>
        <_>
          <internalNodes>
            0 -1 23 1091690667 -887021054 1158676617 -476999662
            -1978941269 -1283290973 -1416789841 -1417428565</internalNodes>
          <leafValues>
            -8.5922330617904663e-01 7.4000000953674316e-01</leafValues></_>
        <_>
          <internalNodes>
            0 -1 20 285266289 -1785720768 268505305 -1794108415
            184551867 -905576448 16787883 -1685640502</internalNodes>
          <leafValues>
            -8.0308300256729126e-01 7.6915538311004639e-01</leafValues></_>
        <_>
          <internalNodes>
            0 -1 5 -716648197 -780038126 285241557 -780038125
            -1744076605 -2004746080 -2113372125 -486293501</internalNodes>
          <leafValues>
            -8.6058682203292847e-01 7.4669241905212402e-01</leafValues></_></weakClassifiers></_>
    <!-- stage 8 -->
    <_>
      <maxWeakCount>3</maxWeakCount>
      <stageThreshold>-9.8973071575164795e-01</stageThreshold>
      <weakClassifiers>
        <_>
          <internalNodes>
            0 -1 32 -805273096 1593901129 286314585 822099986
            -1073504070 -402552824 -1073696597 -913929214</internalNodes>
          <leafValues>
            -8.2117646932601929e-01 7.5609755516052246e-01</leafValues></_>
        <_>
          <internalNodes>
            0 -1 18 -775292457 -649805040 86459 -1857875821 -669939485
            -1962901472 268509195 -880025045</internalNodes>
          <leafValues>
            -8.4626442193984985e-01 7.9676103591918945e-01</leafValues></_>
        <_>
          <internalNodes>
            0 -1 39 -783694341 -134217724 20885 -637534191 1115717859
            -1305834872 16810142 572498371</internalNodes>
          <leafValues>
            -9.4849282503128052e-01 6.7771017551422119e-01</leafValues></_></weakClassifiers></_>
    <!-- stage 9 -->
    <_>
      <maxWeakCount>2</maxWeakCount>
      <stageThreshold>-1.8138606846332550e-01</stageThreshold>
      <weakClassifiers>
        <_>
          <internalNodes>
            0 -1 41 -251405353 -716767227 114707 68370450 -1601580888
            -398458879 49256 -745824085</internalNodes>
          <leafValues>
            -8.5611510276794434e-01 7.6271188259124756e-01</leafValues></_>
        <_>
          <internalNodes>
            0 -1 1 1368527349 -243199948 65681 1360068753 805440000
            973144064 -939327453 -73668453</internalNodes>
          <leafValues>
            -9.2487585544586182e-01 6.7472904920578003e-01</leafValues></_></weakClassifiers></_>
    <!-- stage 10 -->
    <_>
      <maxWeakCount>2</maxWeakCount>
      <stageThreshold>-1.8458180129528046e-01</stageThreshold>
      <weakClassifiers>
        <_>
          <internalNodes>
            0 -1 25 285213012 -40822703 134303967 -581369855 -1879015016
            -1197998080 -1979643222 -1167062998</internalNodes>
          <leafValues>
            -8.6533665657043457e-01 6.9131833314895630e-01</leafValues></_>
        <_>
          <internalNodes>
            0 -1 44 1158144212 -1325203433 1224737049 -1224490749
            -1962744856 -129499136 -2097110837 -611341685</internalNodes>
          <leafValues>
            -8.7590014934539795e-01 6.8690729141235352e-01</leafValues></_></weakClassifiers></_>
    <!-- stage 11 -->
    <_>
      <maxWeakCount>3</maxWeakCount>
      <stageThreshold>-1.0816524028778076e+00</stageThreshold>
      <weakClassifiers>
        <_>
          <internalNodes>
            0 -1 29 -930496429 -514867190 -1459617707 663322761
            -603927909 -394264568 -263929673 -485127537</internalNodes>
          <leafValues>
            -8.7405544519424438e-01 6.8253970146179199e-01</leafValues></_>
        <_>
          <internalNodes>
            0 -1 4 1367824695 -650071936 1342177435 294260753
            -1190735553 -2013001600 -1861050305 -41188721</internalNodes>
          <leafValues>
            -8.3660751581192017e-01 7.5501567125320435e-01</leafValues></_>
        <_>
          <internalNodes>
            0 -1 15 -1044348784 -2013167408 16908371 -2145189823
            -930903886 -1476231160 -2138994465 -779386469</internalNodes>
          <leafValues>
            -9.3660777807235718e-01 6.2901061773300171e-01</leafValues></_></weakClassifiers></_>
    <!-- stage 12 -->
    <_>
      <maxWeakCount>2</maxWeakCount>
      <stageThreshold>-2.7831441164016724e-01</stageThreshold>
      <weakClassifiers>
        <_>
          <internalNodes>
            0 -1 36 -1056638500 -637407229 -1073671847 -1710648809
            -931086132 -1979072382 -637351797 1535873439</internalNodes>
          <leafValues>
            -8.9812332391738892e-01 5.9882003068923950e-01</leafValues></_>
        <_>
          <internalNodes>
            0 -1 50 -1853107745 -1605337088 16777483 -1961525247
            -1610579318 -1610612736 151765130 -1425024373</internalNodes>
          <leafValues>
            -8.7713450193405151e-01 6.5687853097915649e-01</leafValues></_></weakClassifiers></_>
    <!-- stage 13 -->
    <_>
      <maxWeakCount>3</maxWeakCount>
      <stageThreshold>-9.8432266712188721e-01</stageThreshold>
      <weakClassifiers>
        <_>
          <internalNodes>
            0 -1 34 -805273377 -564658078 285278239 -174847872
            -2145859892 -1090350454 -1023362358 -611386725</internalNodes>
          <leafValues>
            -8.1904762983322144e-01 7.2602736949920654e-01</leafValues></_>
        <_>
          <internalNodes>
            0 -1 30 -653669201 -584494733 1879068848 -158531583
            -645728093 -1979580288 -888608249 -683307733</internalNodes>
          <leafValues>
            -8.4084540605545044e-01 7.2044306993484497e-01</leafValues></_>
        <_>
          <internalNodes>
            0 -1 16 2013284816 -744882175 1225265532 -1862270847 557192
            -637534080 32904 -928380918</internalNodes>
          <leafValues>
            -8.6950469017028809e-01 6.9765013456344604e-01</leafValues></_></weakClassifiers></_>
    <!-- stage 14 -->
    <_>
      <maxWeakCount>3</maxWeakCount>
      <stageThreshold>-9.8992103338241577e-01</stageThreshold>
      <weakClassifiers>
        <_>
          <internalNodes>
            0 -1 35 -1073692452 -753331696 1360009365 1929642503
            -1946100929 -1182236536 420708606 -1685420022</internalNodes>
          <leafValues>
            -8.1176471710205078e-01 7.4216026067733765e-01</leafValues></_>
        <_>
          <internalNodes>
            0 -1 8 -649604129 -750578447 16798067 1593954482 -2004473720
            -930086912 34411143 1594729115</internalNodes>
          <leafValues>
            -8.3880788087844849e-01 7.3536187410354614e-01</leafValues></_>
        <_>
          <internalNodes>
            0 -1 17 588302575 -1659826151 8650913 -1726918551
            -2003785657 -2145320928 546080971 2080310024</internalNodes>
          <leafValues>
            -8.9327347278594971e-01 6.8579572439193726e-01</leafValues></_></weakClassifiers></_>
    <!-- stage 15 -->
    <_>
      <maxWeakCount>2</maxWeakCount>
      <stageThreshold>-1.9614388048648834e-01</stageThreshold>
      <weakClassifiers>
        <_>
          <internalNodes>
            0 -1 13 -228867173 -846512007 301994011 320528502 -401948017
            -2113765336 -1918696817 -1962704886</internalNodes>
          <leafValues>
            -8.4732824563980103e-01 6.3009405136108398e-01</leafValues></_>
        <_>
          <internalNodes>
            0 -1 22 1891678683 -753655535 147 -267935599 -255294482
            -804732920 394850459 -76865516</internalNodes>
          <leafValues>
            -8.2623791694641113e-01 6.6999971866607666e-01</leafValues></_></weakClassifiers></_>
    <!-- stage 16 -->
    <_>
      <maxWeakCount>2</maxWeakCount>
      <stageThreshold>-2.9276737570762634e-01</stageThreshold>
      <weakClassifiers>
        <_>
          <internalNodes>
            0 -1 21 -1714753285 -805240816 83892353 -721092477
            -1597468621 -1743929216 -260022261 -20119009</internalNodes>
          <leafValues>
            -8.2957392930984497e-01 6.3578271865844727e-01</leafValues></_>
        <_>
          <internalNodes>
            0 -1 45 -750937635 -742325996 -2125987697 -746565485
            -1744535381 -1996455887 32975 419480718</internalNodes>
          <leafValues>
            -9.2855012416839600e-01 5.9322804212570190e-01</leafValues></_></weakClassifiers></_>
    <!-- stage 17 -->
    <_>
      <maxWeakCount>2</maxWeakCount>
      <stageThreshold>-2.3042781651020050e-01</stageThreshold>
      <weakClassifiers>
        <_>
          <internalNodes>
            0 -1 31 391095803 673398987 285283417 -1946157055 -997611077
            -1744469229 -2138467701 -2128248630</internalNodes>
          <leafValues>
            -9.3905818462371826e-01 5.8974361419677734e-01</leafValues></_>
        <_>
          <internalNodes>
            0 -1 33 -854863017 -2126471167 84365712 1367441676
            -1367111028 -2104983039 -1056169848 -640708212</internalNodes>
          <leafValues>
            -8.0182325839996338e-01 7.0863038301467896e-01</leafValues></_></weakClassifiers></_>
    <!-- stage 18 -->
    <_>
      <maxWeakCount>3</maxWeakCount>
      <stageThreshold>-9.1645139455795288e-01</stageThreshold>
      <weakClassifiers>
        <_>
          <internalNodes>
            0 -1 19 1205433827 -1153429372 1130579 -539885408
            -1886484095 -536702848 1636339899 -22605173</internalNodes>
          <leafValues>
            -8.1042653322219849e-01 7.2413790225982666e-01</leafValues></_>
        <_>
          <internalNodes>
            0 -1 48 -545087484 -670056438 1073791121 -1857728509
            -1577025352 -1979416576 -1031765623 -569378805</internalNodes>
          <leafValues>
            -7.7102023363113403e-01 7.6405209302902222e-01</leafValues></_>
        <_>
          <internalNodes>
            0 -1 42 268505425 1535180817 92278813 -721059839 -2139094901
            -1702756344 -2013230929 462128139</internalNodes>
          <leafValues>
            -8.7007695436477661e-01 6.8677175045013428e-01</leafValues></_></weakClassifiers></_>
    <!-- stage 19 -->
    <_>
      <maxWeakCount>2</maxWeakCount>
      <stageThreshold>-1.4031876623630524e-01</stageThreshold>
      <weakClassifiers>
        <_>
          <internalNodes>
            0 -1 7 269488592 -1684471551 -1744825957 429195521
            -1333785464 -1601175416 -1970795861 -1422981095</internalNodes>
          <leafValues>
            -8.0660378932952881e-01 7.2438162565231323e-01</leafValues></_>
        <_>
          <internalNodes>
            0 -1 3 -1995257093 -648468480 86355 -1794945023 -2139045214
            -234848256 -1073725420 1528512651</internalNodes>
          <leafValues>
            -8.3851927518844604e-01 6.6628497838973999e-01</leafValues></_></weakClassifiers></_>
    <!-- stage 20 -->
    <_>
      <maxWeakCount>2</maxWeakCount>
      <stageThreshold>-2.0198532938957214e-01</stageThreshold>
      <weakClassifiers>
        <_>
          <internalNodes>
            0 -1 28 -1738554861 -1879015407 302022895 -1852751862
            -1073572365 -2139062256 1078268351 -1211129461</internalNodes>
          <leafValues>
            -8.8059699535369873e-01 6.7407405376434326e-01</leafValues></_>
        <_>
          <internalNodes>
            0 -1 38 -1851539239 -855605231 69649 -1727987455 -1610497863
            -939458559 671657903 -1043758869</internalNodes>
          <leafValues>
            -8.5885828733444214e-01 6.7861169576644897e-01</leafValues></_></weakClassifiers></_>
    <!-- stage 21 -->
    <_>
      <maxWeakCount>2</maxWeakCount>
      <stageThreshold>-8.0267563462257385e-02</stageThreshold>
      <weakClassifiers>
        <_>
          <internalNodes>
            0 -1 11 1501778775 -671022583 1360347225 -2147372288
            -2130665079 -1728020352 -888700727 -217430000</internalNodes>
          <leafValues>
            -8.5922330617904663e-01 6.9999998807907104e-01</leafValues></_>
        <_>
          <internalNodes>
            0 -1 9 -988671559 1360068613 121 1493237761 -939517048
            -1652555776 -2080374629 -1197473624</internalNodes>
          <leafValues>
            -7.8026753664016724e-01 8.0338382720947266e-01</leafValues></_></weakClassifiers></_></stages>
  <features>
    <_>
      <rect>
        0 8 29 7</rect></_>
    <_>
      <rect>
        0 42 3 2</rect></_>
    <_>
      <rect>
        1 24 26 7</rect></_>
    <_>
      <rect>
        2 0 9 5</rect></_>
    <_>
      <rect>
        2 23 18 8</rect></_>
    <_>
      <rect>
        3 0 11 6</rect></_>
    <_>
      <rect>
        3 17 10 8</rect></_>
    <_>
      <rect>
        3 30 19 2</rect></_>
    <_>
      <rect>
        5 4 11 14</rect></_>
    <_>
      <rect>
        5 31 22 2</rect></_>
    <_>
      <rect>
        6 19 9 9</rect></_>
    <_>
      <rect>
        7 2 11 10</rect></_>
    <_>
      <rect>
        7 8 14 13</rect></_>
    <_>
      <rect>
        7 12 9 12</rect></_>
    <_>
      <rect>
        7 18 14 9</rect></_>
    <_>
      <rect>
        7 24 7 6</rect></_>
    <_>
      <rect>
        8 30 6 2</rect></_>
    <_>
      <rect>
        10 7 22 7</rect></_>
    <_>
      <rect>
        12 17 13 9</rect></_>
    <_>
      <rect>
        13 6 23 9</rect></_>
    <_>
      <rect>
        13 27 13 3</rect></_>
    <_>
      <rect>
        14 6 14 5</rect></_>
    <_>
      <rect>
        15 0 13 7</rect></_>
    <_>
      <rect>
        18 8 21 7</rect></_>
    <_>
      <rect>
        19 1 23 9</rect></_>
    <_>
      <rect>
        23 31 10 2</rect></_>
    <_>
      <rect>
        24 30 9 4</rect></_>
    <_>
      <rect>
        26 0 9 7</rect></_>
    <_>
      <rect>
        27 7 12 7</rect></_>
    <_>
      <rect>
        28 0 17 11</rect></_>
    <_>
      <rect>
        28 2 15 10</rect></_>
    <_>
      <rect>
        29 7 21 8</rect></_>
    <_>
      <rect>
        33 32 20 3</rect></_>
    <_>
      <rect>
        34 21 11 8</rect></_>
    <_>
      <rect>
        34 27 20 6</rect></_>
    <_>
      <rect>
        35 32 20 3</rect></_>
    <_>
      <rect>
        37 10 13 10</rect></_>
    <_>
      <rect>
        38 24 19 8</rect></_>
    <_>
      <rect>
        39 0 12 4</rect></_>
    <_>
      <rect>
        39 0 18 7</rect></_>
    <_>
      <rect>
        42 22 13 8</rect></_>
    <_>
      <rect>
        43 19 10 9</rect></_>
    <_>
      <rect>
        43 44 3 1</rect></_>
    <_>
      <rect>
        46 12 15 9</rect></_>
    <_>
      <rect>
        49 21 15 9</rect></_>
    <_>
      <rect>
        70 14 8 7</rect></_>
    <_>
      <rect>
        71 32 7 3</rect></_>
    <_>
      <rect>
        78 17 6 10</rect></_>
    <_>
      <rect>
        79 27 4 5</rect></_>
    <_>
      <rect>
        83 12 4 8</rect></_>
    <_>
      <rect>
        90 39 2 3</rect></_></features></cascade>
</opencv_storage>
